-0.214368203775 0.744806372414 -1.22519803633 -0.378295949738 -0.385772309113 -0.865798960195 -0.588854647907 -0.310896066709 -0.0997204197426 0.00883132001432 -0.214626239829 0.606216471515 -0.995165013655 0.609160208975 -0.994810940386 0.36492429143 -0.186865650404 0.117380546752 -0.621416637928 -0.75448423053 0.639907881815 0.960835536772 -0.621561392333 0.286694102488 0.762927695678 0.861774154618 -1.06032256714 -1.40717378414 -0.523942303371 0.751475693163 -1.11476648621 -0.044290225913 1.09018485693 0.0152600951673 0.150350180088 -0.297961137188 0.14810131334 0.598645080605 -1.03810857653 0.586593167702 
2.02884384144 0.644882114485 -0.120014911592 0.594771995113 -0.56215726047 0.274595415898 0.64497854561 -0.404257147646 -0.488250861639 -0.983121143572 -0.858772869588 0.116600273455 -0.460010100005 -0.260603707341 0.0577110975207 -0.992820122222 -0.218599177131 -0.706549616413 0.122734096946 0.590705729967 -0.860516360153 -0.217587576882 0.713570186834 -0.366090956675 -0.88990201392 -0.211347628247 0.474139446783 0.410657191543 -0.703539177 0.760224360292 0.855850511934 -0.901283273952 -1.11594533438 0.618383542941 0.0288412584534 -1.00922807029 1.28277808404 -0.373872329423 0.520130955922 0.602757853628 
0.156239118531 0.971278732852 0.461973146784 -0.302202359907 -0.663352695175 0.650460378927 -0.107768772118 0.946001854561 0.419393243538 0.368511268762 -0.777145835111 0.893582355995 -0.248699702288 0.289428392431 -0.428236989493 -0.522364982404 0.877203718394 0.147357872449 -1.24619125187 0.305188563892 -0.0348077580606 0.045138585496 0.995705977092 -0.46628558391 0.81710180749 0.30554091522 -0.996568923174 0.266999399415 0.999998426493 0.298366526073 -0.578056142694 -0.963059632503 1.08920162518 0.348322328217 -0.78998425326 0.667958949159 0.736830544979 0.956239281783 0.432003871514 -1.03728497898 
-0.98846267394 -0.675893013283 -1.14113433275 -0.506278672908 1.02684005543 0.0279034830081 0.0826488376589 0.729945783946 -0.661203886007 -0.468533505019 0.13307546113 1.25687604944 -0.350824686657 -1.06940260542 0.448494988732 -0.425715785616 0.564002963542 -0.224274209151 0.773273813988 0.352949822183 0.159650691857 -0.704051102952 -1.11440318533 -0.835294631928 -0.910842741982 -0.71607140409 -0.787129231398 -0.136709554458 0.360388546324 -0.998007421556 -1.19942074399 1.16939992335 0.347544973318 -0.580032407412 -0.744005637939 0.590779819588 -0.817241971415 0.0529652878543 0.856387189342 0.757102337657 
0.748916479579 0.205816595369 0.475956413217 0.658365521728 -0.37160678074 -0.562500434775 -0.994749686967 -0.015140841649 0.131054685631 -0.140314650328 -0.253793441441 0.887338760096 0.22956472121 -0.0477260270377 0.153975533433 0.418141277592 -0.116357646026 -0.470163310279 -0.906025072564 -0.190291960392 0.20265063208 -0.604854221599 0.713033337455 -1.03096549214 -0.479355695487 0.372145298878 -0.609629850627 0.471531497595 -1.59698858589 1.50932029663 -0.493337178161 -0.795037666522 -0.034939055073 0.641595139346 0.930485285374 0.496474368878 -0.629217371816 -0.599505092505 0.2340221868 1.05369831814 
0.466125788116 0.882493604245 0.825930206026 0.2831323869 -0.28170349654 -0.0989571410778 0.228925481751 0.0993390177107 0.941881391724 0.910428599125 -0.2212702455 0.983214283013 -0.741290622188 -0.67503673977 -0.895132623711 -0.00372015048918 -1.00228749485 0.89593913116 0.512039886129 -0.869501876414 -0.379463248209 -0.342858000599 -0.542592493156 0.490226651087 -0.31053304962 0.899758546492 0.222967105817 0.275043145481 1.04443882962 0.33672990823 -0.117264646518 -0.158618781338 0.69790596277 -0.453939638292 0.0644399553606 0.276587612091 -0.854262373571 0.380729772551 -0.150543273958 0.439851180887 
-0.33912381803 1.01735644948 -0.0286215462273 -0.630611424474 0.63506632166 0.154584850004 -0.968986137751 -0.0849148442807 0.447402745603 0.786650854957 -1.02842468395 1.02264129649 -0.670091546305 0.888963758014 0.0469378764346 0.80548061643 0.225003912764 0.2561554268 -0.450380928979 0.0667356498093 0.551594878339 0.732104767053 0.347099441255 0.254647622054 0.729090523089 -0.315450690573 0.184525772066 -0.584955514817 0.0952334312064 -0.242957245832 -0.234098482309 -0.207896764318 0.428152118422 -0.118873781413 0.916414927912 0.431593769491 -0.625038144723 -0.265984875858 -0.316337474365 0.636102879655 
2.20904779431 1.0419931049 0.435401489399 -0.451342286387 -0.158078971471 1.1916628774 -0.023752654479 0.611274252369 0.0609745265769 0.138504843693 0.146192413313 0.535016524908 0.180034825581 0.115766106416 -0.221174598051 -0.949188954172 -0.789360261054 -0.840751167936 0.907791787182 -0.679558710989 0.575966024914 0.74069497885 0.492120910203 -0.0610178323145 -0.672961247526 -0.23780081273 -0.529738355703 -0.50199898339 -1.23990651829 0.328174307505 0.817672247215 1.00645742992 -1.05904659591 -0.704372946362 -0.632225690903 -0.383740358652 0.769056123219 -0.652995819727 -0.503479734402 0.810494985969 
-0.623502033043 1.02931058119 -0.531669561534 -0.794702506576 -0.0365163879965 -0.0694791617474 -0.671208368883 0.235798190415 0.190895343922 0.360011573464 -0.724056472126 0.553341454942 -0.63519785454 0.16821257068 0.463257783141 -0.976559212144 -0.450076087678 0.745844480424 0.447227559421 0.183735779648 1.04743923801 0.894531239424 1.04450012118 0.564295033113 -0.802530256944 0.312375063374 0.493855524794 -0.232462522903 0.732772393467 -1.51543423445 0.551855271399 0.116179311331 -0.508622607419 -0.500882917755 0.374929518551 -0.281538211691 0.720041483119 0.22480198954 0.562379234725 0.674018148296 
-0.239809853311 -0.499619455725 0.572222101526 0.068675609551 0.871267061379 0.17766635087 0.951365789324 0.143504833316 0.15063078279 -0.852501218103 -0.31814120756 -0.988542915223 -1.03747210183 0.419013747304 -1.00832450734 -0.167207968283 0.864430045628 0.385361642496 0.341232297333 -0.750802846379 -0.0712751063695 0.197894627303 0.849027458514 -0.740042256114 -0.514603649196 -0.429998250335 0.361215493895 -0.507969277806 -0.54661556759 -0.0333436942438 -0.409864386627 0.797551341143 -0.350330906845 -0.808194831589 0.295939465954 0.68515523832 -0.24464637387 0.426417749986 0.0727574030882 0.0960273296885 
2.2803776272 0.701424521277 -0.847084314149 0.418976338298 0.258873660041 1.35610317693 -0.604197690691 -0.460917016695 -0.916228285906 -0.426105356741 -0.679641157603 0.344378509517 0.602326083913 0.504970977801 0.664392630887 -0.362787641771 0.147399354342 -0.142462094224 0.669828616159 0.156618045642 -0.797204274324 -0.834770694794 -0.972022797219 -1.06098119201 -0.0828284961757 -0.872318875344 -1.24698834842 0.458594929478 -1.50232077269 1.21754221124 -0.146460217073 0.28659701231 -0.596314481592 0.0445715104052 0.449929952978 -0.522088242584 1.06116880707 -0.977590927466 0.539031781591 -0.623761211326 
-0.178576364591 -0.166065164604 0.0779043058443 -0.992668321414 0.710879337487 0.806734587512 0.60528791038 0.821797391542 -0.597820282192 -0.65528011098 -0.644529152751 0.18033654987 0.746612097795 1.04073020236 0.373701351069 0.428043702783 0.735107131185 -0.198252387486 -0.646366637355 -0.549762838647 -0.471424805792 0.628179601729 -0.382437881874 -0.639561548058 0.638177193467 -0.358960249848 1.0593552102 -0.907038859928 0.100405306186 -0.841607259435 0.994145603707 -0.587850208184 -0.142919091721 0.0203371079643 1.0422012367 -0.93458743608 0.601727595672 1.11454754683 -0.903884628886 -0.196449095977 
-0.2903324945 0.899909207967 -0.0666761831362 0.358105221181 -0.270277328253 0.12361409786 -0.412841233089 -0.968942043083 0.255232944704 -0.475434926743 0.0014581058956 0.70921708514 -0.486636710454 -0.60693332313 -0.29501411355 0.923215077218 1.07258320074 0.688668284812 0.846277868868 -0.63449452608 -0.806514483386 -0.512262989107 -0.501024672049 -0.75574499544 0.198968738996 -0.143576489703 0.576088965103 -0.988647365768 0.605657196294 -0.547085431437 0.410749025891 -0.110121723336 -0.844510367521 -0.372017917884 0.507854157653 -0.00072820614739 0.0513748208793 -0.682360736188 0.218630131603 1.05231398563 
1.71349234076 0.15960317422 1.10441451663 0.80319336776 0.425823662766 -0.482446499617 -0.868286386718 -0.854505538609 -0.174129350608 -0.426227977604 1.051597622 -0.597063103765 0.930945624712 0.62369653634 0.717835461168 0.302491323465 -0.190355109608 -0.0462340879579 -0.92375783595 -0.365393683029 -0.0994960582743 0.471009291976 -0.0572651695733 -0.305016902002 -0.724646199132 -1.0275412526 0.292446525477 -0.360011990239 -0.215221499755 0.0630293167214 -0.334074011225 0.436999443288 0.127616816107 -0.0178387865243 -0.946935657519 -0.647689661345 0.326537355571 0.26416639711 0.54039568333 -0.668273242674 
-1.24074436739 0.836548946877 0.638377510998 -0.96422803661 0.144991593876 0.406058106732 -0.115345987247 0.824630287509 0.401837600619 -0.965822908184 -0.0565782538031 0.608695681364 0.556159505798 0.405503848002 0.29486963856 0.117686593533 -0.548484559692 0.121059651324 0.142919951447 -0.187324479054 1.02677274154 -0.615301492831 0.989767470601 -0.622076106271 0.552696795281 -0.14750955655 0.712942773939 -0.708777111339 -0.643866703846 -0.0332943849576 -0.165839687287 0.200571395566 0.368974828032 -0.603811677989 -0.399975415572 -0.595194334612 -0.546500116815 0.0878013548247 -0.890338504869 -1.10711390914 
0.336752812824 0.723651237266 -1.01387124035 -0.568214862791 -0.626202790844 0.640978170184 0.432528055281 0.112380824335 -0.30349374982 0.563401058322 -0.168517830426 0.825869750489 0.0873774319732 -0.160458313285 -0.753563414538 0.968610702071 -0.467992996694 -0.594786099976 -0.117754060261 -0.267204581984 -0.697953617742 0.496611278553 -0.72048656828 0.277186132358 0.488273139774 -0.555888199579 0.145789635346 0.131433084117 0.465764846322 0.139691954626 -0.316230265791 0.68829796552 0.961947771185 0.0670416921866 0.680784512455 -0.856303616639 0.514199397866 -0.667182350377 -0.183257430623 -0.339871571828 
-0.0373525609967 0.793164815427 -0.0898218562674 0.0548547243296 0.259157292214 -0.418503999358 -0.646339025257 -0.829546996919 -0.0615088984201 -0.604383838107 -0.197486248272 -0.707099692281 0.56426495719 -0.746904580572 0.935033963794 -0.53791241181 -0.279244292366 -0.910304496731 0.693157565738 -0.70497638545 -0.0106803056871 0.496761638423 -0.711060720737 -0.0576648553199 -0.571825090779 0.492288395614 0.341230874172 -0.634584901788 -0.545106325981 -0.463154022121 0.641356233833 0.527925136466 -0.457159001604 0.590696780982 0.221041007917 0.757970229422 -0.228414692709 -1.09242650294 0.855704262252 0.782359139971 
0.408304364681 0.891498343844 0.388493111067 0.574349540411 -0.365795352571 0.64405226664 0.514020928872 0.205336607683 -0.0926765722947 0.392718818285 -1.02737901223 0.541636818689 0.629255998925 -0.425057139817 -0.791554294709 -0.628415041467 -0.605955829786 0.766059463971 -0.096810932338 -0.363709854214 -0.406609599002 -0.420921906535 0.719422082865 -0.516258110525 -0.0802155369498 -0.114664157199 0.681325181998 -0.600940483764 -0.431762089721 -0.149079259912 -0.40799736666 -0.193064046787 -0.60683122648 0.21754654423 0.853077655537 -0.120572401192 0.632406632653 0.24299780844 0.362628533734 -1.06575553152 
-0.343971038694 0.961474416589 0.100976194518 0.509836076381 0.0631583756803 -0.208588688168 0.656861907892 -0.836306432083 0.186146386138 0.858976011821 -0.00102326595049 -0.540713446655 0.460804694399 -0.588609726381 0.322370666608 0.154024778052 1.06443825125 0.24868105438 0.721680365099 -1.05106190313 1.01123978352 -0.824157118039 -0.431617655583 0.995515619575 -0.997345107522 0.664945261873 0.70520054451 -0.521741132 -0.42479757313 0.485147567477 -0.116303028643 -0.561189296844 0.960930048774 0.926421135384 0.00112979747564 0.809470369866 -0.409390414575 0.374947223055 -0.222101215828 0.0613613855791 
0.121397730809 0.897384598362 -0.309659519825 -0.798324487297 -0.428828058586 -0.752913715946 0.367347036995 0.150355864516 0.492303326399 -0.110291502985 0.638462843841 0.455250426198 0.592862673627 -0.211981360292 0.213571001489 -0.513187767237 -0.662657888037 -0.654784991159 -0.000378773325083 -0.675998833524 -0.254624677931 0.973731966487 -0.378694005415 0.9337088438 0.267560116714 -0.2559266138 0.686642028081 0.315664040869 -1.7910021769 0.996097568937 -0.213251362077 0.163423990612 -0.604275876113 0.466616123646 -0.656877426542 0.411532833524 -0.41251988175 -0.0282562185981 -0.0304888079393 0.772434970828 
0.812306138757 0.253820504283 0.148885122286 0.80179460459 -0.141528863318 1.00482170775 -0.392687798434 0.180500690492 0.473143327564 -0.546947940871 -0.994977917739 -0.0449049059467 0.682139531127 -0.215500578062 0.515376942448 -0.727446331404 -0.640112893793 -0.710799831729 0.245290529872 0.459448341706 0.69000929348 -0.486523057016 0.847868283519 -0.728196699719 -0.150764373103 -0.246003966876 -0.310431232332 -1.38175729093 0.177589061273 -0.0175945873097 0.274284599284 0.248452859424 -0.916863305114 -0.694699570748 0.0505674684027 0.713196780939 -0.572468243903 0.250201959711 -0.118897354148 -0.334983707389 
-0.882066092358 -0.129064882706 -0.549315190585 0.665065485831 0.557633654539 -0.314896906326 0.149644250114 -0.668955598615 0.0139223614094 -0.426398865347 0.685615230474 0.325338480801 0.143142011459 -0.84423433281 -0.161568895352 1.07824159804 1.04783257974 0.290170380075 -0.59000851083 0.232885217537 0.175585232261 -0.0529359139607 -0.224431909788 0.382386844269 0.68983440139 0.508481155194 0.165531590902 0.43686257719 -0.712864534184 0.930932412517 -0.866322999625 -0.452338980995 -0.0503766863699 -0.703758721662 0.315771298313 -0.793692673296 -0.681521300393 -0.848886783426 0.380859130977 0.416433231616 
0.55752168604 -0.637607466661 0.540030385034 -0.313852837431 0.841218668199 0.160800335097 -0.0293772888513 -0.917569301 0.180389029596 -0.445565810109 -0.511663662651 -0.140734090563 -0.153702381585 -0.104962504969 0.909882208711 -0.15605651059 0.310824555798 0.105540490235 0.978869610301 -0.488406654592 -0.571634220434 0.841101039732 -0.907974235946 0.937218062047 0.11286453926 -0.266346534396 1.01375146803 -0.752522878954 -1.31077164171 -0.569520261197 0.131103701145 -0.229689894453 -0.0566490293077 1.00083580619 0.62699198907 -0.31411255524 0.307539325233 0.439552592522 0.0130012400935 0.123303199996 
-0.604173314952 0.650532152563 -0.71563279061 0.45917152244 -0.076975360216 0.106212863099 0.833781991848 0.0100334288537 -0.091135686892 -0.489007023676 -0.863453236972 -0.0403034663367 -1.11524294453 -0.347848210658 -0.030831292812 0.830268451421 -1.16674602328 0.346086924409 -0.130383476846 0.651447603536 -0.433883576218 -0.823342800697 0.149062225636 0.404034502209 -0.61672529131 0.545727324413 -0.471108239938 -1.07155435679 -0.94357343475 -0.464583716698 -0.200912872405 0.255811535218 -1.01739032316 -0.678131833214 -0.938134136834 -0.832586621833 0.418058999923 0.0570436422901 -0.334718404332 -0.124943822252 
0.867619815685 0.948291539777 0.319856235954 0.813616004884 -1.16162734534 -0.966836989221 -0.115909051007 -0.265222086819 0.845922004621 -0.0811217398318 0.0503680462404 0.609975898735 -0.0974561541864 0.67534231642 -0.588196962849 -0.352798315347 -0.206483752538 0.0951198293399 -0.440088608012 0.315318992819 -0.639256618808 -0.805513182866 0.6802639742 -0.342031762244 -0.23299475444 0.145911771009 0.0506079675803 -1.26923083835 1.14853341961 0.904502482652 0.891998943207 -0.33752413839 0.147331450265 -0.273422711701 0.308745827815 1.03171606924 -0.542081107202 0.36545781895 -0.340739153676 0.613817912204 
0.454415804129 0.706691652461 0.4860164211 0.532083468819 0.186719465496 -0.389196708898 -0.97666228367 -0.329947646274 -1.01076510892 0.235400961456 0.36401112593 -0.101847700604 0.601576830769 0.0412955869001 -0.95187054853 -0.620862583071 -0.846398564295 -0.328666036808 -0.731142394201 -0.0440576002056 -0.0588088093985 0.249639857755 -0.198087329628 0.722551492556 -0.0918309083619 -0.988538244305 0.69046801201 0.398824359216 -0.712411358753 1.30869551715 -0.911892276476 -0.132084914447 -1.21193879718 -0.117383773836 0.575647355572 -1.04357287538 -0.169431748427 -0.846661896871 0.574993098928 0.766462886185 
-0.840068209251 0.871481865562 -0.514165250413 0.903790404336 0.731253569279 0.399619262509 1.01505037412 -0.351381498636 0.875595559301 -0.152019200987 -0.52434545061 0.910586769489 0.194368109899 -0.82770564539 0.695528225331 0.313891457354 -0.10938825254 0.464757599368 -0.582710805917 0.304308780611 0.882640528762 -0.875785190093 -0.49938868144 0.486559127529 0.231546198423 0.0858627932158 -0.566432780001 -0.921029569393 0.836339486104 -0.355107685737 -0.707076005922 0.774700096867 -0.713098991899 0.71137149258 0.852920059232 -0.0798071291955 0.40822347177 0.289798146548 0.314423837358 0.530234505444 
-0.516849186479 1.09239067338 0.0690491072822 -0.800877015034 -0.771881484519 0.131651755194 -0.565253162299 -0.716359096087 -0.707162459413 0.622832703819 0.181712325291 0.790698117364 -0.197197676295 0.115980078662 0.0799209270912 0.338471341552 -0.81077792828 0.50061822852 1.02336111747 0.0764708315266 -0.527720462788 0.512632744357 -1.04977820511 -0.157581886332 0.830176726954 0.179310940726 0.772525060632 -0.164814305755 1.34161920836 0.812209661915 -0.124830102324 -0.7125897542 0.558664395185 -0.0735067837671 -0.507837344683 0.225214317364 -1.09460168647 -0.593968640848 0.539940045668 -0.905096942807 
0.405545773369 -1.04023517612 0.989875527899 0.170879218957 -0.264240301054 1.14158220998 -0.0250521050566 -0.0645578196494 0.098815017501 -0.572109465503 -0.356101379419 -0.188242885758 -0.521716833662 0.165302515703 0.374517182059 -0.742487063631 0.615042350068 0.506148227099 0.739605687931 0.248879687813 -0.918684549745 -0.025593185844 -0.200284252701 0.320726781893 -0.102468147819 0.408913566434 0.213735348149 0.383149168253 -1.06686961103 -0.260108201169 0.57846917239 0.994115675414 0.488088471374 -0.51125818735 -0.850519972925 -0.406935663136 -0.341133827787 0.550836799803 0.274163003545 0.585776003094 
-0.180535788506 -0.0826486126535 -0.741680164365 -0.263545079667 -0.732845454596 0.73286768697 0.292818616404 0.322217425072 0.0757048764102 -0.812271508226 -0.518880364693 -0.0502820508994 -0.8094473818 -0.876549139791 0.405971670016 0.375464411407 -0.551626986155 0.686996983871 -0.272679876253 0.811846568547 0.531009152508 0.172768005752 -0.357117594633 -0.127506414964 0.778598656534 -0.383470657775 0.701202147684 0.471276927913 -0.497807906274 0.123038961683 0.925942705192 -0.860788465818 0.531881131504 -0.527787532968 0.76258093668 0.299446316766 -0.0797904112192 -0.378367014267 0.32072092507 0.503392033444 
0.421467706222 0.615405274519 0.889031779736 0.146037428365 -0.773556510653 -0.202009982744 -0.403487391139 1.02430032018 -0.283760893134 0.991716544707 0.0191414386612 -0.721785983129 -0.818597361865 -0.314550941808 -0.999105732264 0.440321189479 -0.116069492003 0.981812487473 0.955834248319 -0.663216648533 -0.0972387488074 -0.0759703065423 0.0827490885237 0.776150645614 -0.0306228343353 -0.157510023702 -0.328333830026 0.501263582584 -0.224182322646 0.616932442001 -0.488220685209 0.342845509472 -0.0432085263752 0.971343511159 -0.550108847202 -0.563468510517 0.629421488177 0.125290429554 -0.456660804985 -0.957139598987 
0.247472091245 -0.80589561486 -0.621649673216 0.809819782918 0.809363708457 0.781664623942 -0.0820913355899 0.672438027745 -0.0842128576694 -0.34051809411 -0.424053708332 0.909419312994 -0.219530615178 -0.00401728324919 -0.485475918241 0.884917015047 -0.617543773611 -0.404852222078 0.541206762045 -0.866634476812 -0.841142779089 0.672306078885 0.369087072447 0.160866960266 -0.503990760739 0.249958306663 0.107892632322 -0.324497030388 -1.89183233679 1.24225744186 0.045755124718 0.842887597632 -0.788154902161 0.10853759746 -0.328746757037 -0.426457571163 -0.676727851169 -0.57627605936 -0.799526792065 -0.328747701546 
0.311784654978 0.739113993726 0.38245540982 -1.00013558965 0.288985306114 0.0134692651501 -0.417384619826 -0.721165604352 -0.537157762152 0.723893185451 0.972164656488 0.884557116368 -0.509793144033 0.620141786003 0.0462603227792 0.56458299533 -0.144385824006 0.179914722028 0.440447612983 -0.736622889217 0.23619930165 -0.255191562067 0.44066902062 0.782937351717 -0.229743536495 -0.204228576627 0.583058431207 -0.00284660803316 -0.483095149924 0.0942079224652 -0.134856463196 -0.715741853927 -0.311857799505 -0.208727518053 -0.526214208254 0.841222545091 0.540864994336 0.512016310107 0.531147439735 -0.0954460102067 
0.0613055497898 1.22650907212 0.787283384505 -0.698923602481 -0.671734620125 -0.941763167031 0.843017173673 -0.463227564804 0.249001511289 -0.717501146158 -0.582927686224 -0.0619863695712 -0.759273063002 -0.256235807762 -0.270716329105 -0.0744211935853 0.185154833003 0.0735172282421 -0.114668206804 0.477616224414 0.48306898888 0.362354195743 0.0771682874563 -0.053550496201 0.221253333096 0.874003744014 0.431865036834 0.619818209563 0.68463528416 0.378633421867 -0.822682824906 0.513533833725 0.341095542353 -1.00782403341 -0.248714255088 0.186575971997 0.460084542682 -0.946126894836 0.0140340230984 0.657081773018 
1.31407800794 0.739779230927 -0.973090350221 -0.437118082138 0.921890513697 0.851141470323 0.196566076705 0.67257140723 0.717304810703 0.804316833824 1.00407712939 -0.675642269801 -0.858189361444 -0.864079883864 -0.90820544314 1.02080853038 -1.11635682596 0.683473865325 0.470880644832 -0.341992431879 -0.385571133849 -0.27959482338 -0.57700231729 0.849934153418 0.456404267581 -0.941456278051 -0.280761893432 -0.353161243974 -1.9141570364 1.21384926844 0.702759131641 0.129774840786 0.0900826054683 -0.35217964367 -0.540866513885 0.635988635151 0.863935855276 0.0141610020064 0.954519939393 0.804469199027 
-0.0123053321546 0.123548306589 0.44987413867 -0.104184449906 0.250017662666 1.01558515548 0.675650388633 -0.405576322292 -0.761738770317 -0.630173642383 0.0689066892736 -0.0330470602225 0.471405309069 0.957904023644 -0.650753419889 0.636211197916 0.75192356834 0.918954262768 -1.08075865447 -0.835964556999 -0.864969236709 -0.364858299838 -0.658148251567 -0.480434317623 -0.303372797316 0.89733854591 -0.0882519924583 -0.64110539085 -0.293895777466 0.0919037855137 -0.824462685209 0.540297071483 0.410786812363 0.820825978641 0.767423731982 -0.266838619461 -0.0335012570654 -0.483580056114 -0.531486974035 0.76764953628 
-0.818755930643 1.22215846509 0.857409615847 0.819039647795 -0.999275956738 0.66027616743 0.142017750521 -0.511585307842 -0.407942675633 -0.58533754438 -0.114600177624 -1.03798933772 -0.527152027462 -0.662011826584 0.0465189972649 0.397918019531 0.859046611559 -0.510753009932 0.428788654094 -0.843089549741 0.171052926746 0.714961618271 0.908365830037 -0.738501322089 -0.49417972809 -0.533031476516 -0.666561243462 -1.2826930041 0.791968853714 -1.00800196236 -0.205526436836 0.241840077572 -0.113613366576 -0.521277978907 0.418436530943 -0.113059068261 0.361299201365 -0.0236972751694 0.218135951151 -0.240864109135 
0.51664645628 -0.965750959531 0.723407065611 0.604494057984 0.938141360465 -0.405317455813 0.873469502724 0.874507348585 -0.508838283738 -0.620065157582 0.10187948289 -0.604060952841 -0.117079182424 -0.666585341633 0.983036763512 0.0457519457525 0.733241372304 0.289888918426 0.0664163181476 0.594212794317 -0.819401198449 0.291199053091 0.249902508904 -0.0429481502356 -0.886347684322 -0.00133847777242 -0.268949291586 0.678435273734 -1.52018046328 0.190453688089 -0.326523013003 0.905489897423 0.496902674784 -0.550563387735 0.519591194062 -0.750121085343 -1.06711761776 -0.77402381366 0.935588565426 0.801384167332 
-0.44550197 1.10784058453 0.749790392897 -0.152635943936 0.0911995528135 0.355674879674 -0.5538317993 -1.0440770558 -0.432128640561 -0.945170697758 0.370643337208 0.417819525456 -0.441566981294 0.671361384432 -0.685673710507 -0.588063173263 -0.69811913628 -0.608120447487 -0.998464590022 0.812920032983 -0.7506358933 0.373627371737 -0.556595125421 -0.955395767876 0.0940262309716 0.787587885919 0.687837534578 -0.368114264181 -1.17951693892 0.534505950716 0.39082452057 0.744364814143 0.051071848804 0.7812580632 0.705996279039 -0.138243445424 0.102979400855 0.325565643249 0.36197229396 0.211271223897 
-0.0532253060032 0.682061394356 -0.00105168140576 0.643108721089 -0.493720972552 -0.683783688466 0.946099578993 0.486893757249 -0.490695939785 0.183715349151 0.901848746495 -0.834167273444 -0.811588570514 0.1801075505 -0.556234985187 0.536497690901 0.157869040165 0.332379585867 -0.71051563893 -0.847949537332 0.249713914944 -0.170204298782 -0.897490305071 -0.206017496427 0.339210525272 -0.58777805127 0.795192873239 0.846343883104 0.982461399807 0.46605733683 -0.156432691382 0.553494948392 -0.347627562263 -0.337326724787 0.202062524314 0.214983548125 0.696039779627 -0.507272361194 0.547017303433 0.90947781763 
