-1.83900777679 -0.627937196265 -1.01060562835 
-0.10268634788 -1.29797047891 -5.04877751049 
-0.745319399092 0.241601544491 -2.32118478957 
-1.98887706141 0.253677264204 -0.992089208027 
-1.15535576398 -1.37620436921 1.24184651375 
-1.21371688333 -1.00224424997 2.5286220789 
-0.0522942951279 -0.15867145432 0.280241982058 
0.484908544213 -0.182478147538 -0.994946568873 
-0.434240413933 0.48682364605 -1.87538939703 
0.130256866332 -0.974821050196 -3.48462651242 
-0.267950224898 -1.16856863288 -1.8294212751 
-0.471300901302 -0.16481402634 5.11107525481 
-1.96573070776 -0.0858041221461 0.661716531893 
0.23243926044 -0.620103542457 -1.85784104648 
-1.63910051574 0.149726553114 1.1329827909 
0.498160917307 -0.853170911369 -0.549102796994 
-0.598671627949 -0.207795076293 -4.6139813337 
-0.43188172311 -1.03394176408 0.307342610352 
0.14483699609 -1.33171927834 0.477591108472 
-1.13567340469 -0.529128973631 -2.41119324734 
-0.0504352285581 -0.884638249719 -0.762840659607 
-0.343211300428 0.195486812405 0.815765646074 
-1.09071223112 0.332744323992 -2.22201533114 
-0.555408586066 -1.30344397737 5.38602675273 
-0.823144977727 -0.281798731887 0.00774687599342 
0.166933292344 -0.912020643116 0.654808984026 
-0.0341954464513 -0.522829165969 -0.021506443832 
-1.13652958673 -1.23150456919 -3.71231032295 
-1.81317601563 0.0497747013272 -2.67778326351 
-0.986559178752 0.140020795647 0.871012781865 
-1.06324840969 0.244061598583 -0.919960671638 
0.459463394366 -0.869969429121 1.14733566473 
-0.00508619376677 0.0398754261212 2.58266115743 
-0.128802219306 -1.08838165021 1.9487409542 
-0.624015360332 0.0435450904557 -0.364003066522 
-0.482820647236 -0.5089686734 2.68370338348 
-1.19071323765 -1.1411137053 0.920044949945 
-0.846336232011 0.0849345572582 0.472768673116 
-1.84368994121 -0.0295395847551 -0.801049332528 
-0.408950930762 -0.81112386401 0.760486409723 
