-0.210140242087 0.416208962896 -1.01043095114 -0.417782573978 -0.690569293865 -0.847241910532 -0.547775037698 -0.307147327622 0.0585066349981 0.205870094839 -0.144229850171 0.380516966002 -0.577467422331 0.352117096714 -0.813605221697 0.220845724579 -0.505983481518 0.11756821157 -0.695871040451 -0.565562339563 0.780172858816 0.995811541782 -0.412350857781 0.207060445167 0.761664481521 0.906314970773 -1.30132744733 -0.781258575874 -0.559856631622 0.686296397288 -0.845966663741 -0.24372124599 0.849971438243 0.0789360011165 0.78880356746 -0.44095231483 -0.0440678518945 0.721507701627 -1.00353460455 0.68945367776 
0.816885768453 0.501452296722 -0.376650054787 0.554782714454 -1.07041267244 -0.350524680711 0.797346300835 -0.415241302552 -0.546470020335 -0.858167466564 -1.00530469906 0.932998667114 -0.566296855386 0.190682863698 -0.470446374714 -1.02774416768 0.814746444882 -0.706339283406 0.201186214379 0.374034983444 -0.795509206979 -0.208882313022 0.435728874163 -0.2561980709 -0.890999111721 -0.36297712537 0.375095829375 0.00014333436708 0.972034465871 0.0684463224129 0.825921967289 -0.691469204503 -0.780934346438 0.469387073744 -0.409083494915 -0.779379664494 1.71767793518 -0.253643995657 0.512316095091 0.543803344588 
0.834879797234 0.185979001795 0.520560336221 -0.302200416864 -0.176624027327 0.832329457402 0.0687981630424 0.919652205755 0.516655259171 0.493404760861 -0.764844266792 0.5904155829 -0.170844092671 0.374196624809 0.386385340049 -0.303331716671 0.761185364067 0.147360784575 -1.16348584567 0.118560944812 0.0317321982865 0.0302676701952 0.672797773936 -0.30761562234 0.817373859341 0.32229100423 -0.836630751325 1.37641497626 0.445093968012 0.98104316911 -0.655442180154 -0.691121911789 0.955494450534 0.463998443733 -0.786843725487 0.552998636165 0.464116679199 0.755282741465 0.42705395182 -0.430925303802 
-0.994535474251 -0.971273946611 -0.933785693113 -0.506641743023 0.72968958789 -0.132265838443 0.230027527741 0.664244070277 -0.509453366388 -0.295632577153 0.184916545404 1.02904412073 0.141459285407 -1.36544765076 0.782795260283 -0.632808628399 0.385772336179 -0.224284731453 0.717878067496 0.50780276117 0.269534054278 -0.684335953494 -0.929639391631 -0.939947937132 -0.910144057749 -0.684626300986 -1.01579473243 0.565923002475 0.646120494834 -1.00015304372 -0.905381063258 0.800939855646 0.0741058400503 -0.587494344148 -0.129113442812 0.438303628529 -0.981735794696 0.221921902481 0.895890038599 0.890272231529 
-0.720591805066 -0.0114350484341 0.271032565567 0.657619200217 -1.14371828625 -1.19819813733 -0.907202768763 -0.0303637559186 0.0659476792248 -0.0333284751983 -0.413130215173 1.69664813412 0.171863218202 0.401820733465 -0.346394912609 0.367957808059 1.04204694354 -0.470154090334 -0.797466353684 -0.228155107752 0.28277209906 -0.59189771835 0.519429723291 -0.957421325095 -0.479223409905 0.233373837932 -0.54827614694 0.276892500527 0.265653630154 0.727139596277 -0.46293675331 -0.8748276328 0.401112820429 0.370754934169 0.587227757048 0.753953668427 -0.0939154998549 -0.483255210028 0.235596823908 1.09234592165 
0.930217399511 0.0506867993466 0.859520939981 0.283132463132 -0.0346567252095 0.0369323770734 0.49559559542 0.09775443627 1.02363916469 1.04664125457 -0.204050281633 0.821053577429 -0.726702572786 -0.449181325507 -0.271690401184 0.178819816769 -1.09366528126 0.895942283645 0.523304267804 -1.07666422663 -0.247688231272 -0.353071870431 -0.824008832475 0.612867232833 -0.310551021817 0.90527683554 0.337105991303 1.27538542526 0.61013298773 0.773097188238 -0.0936895731392 0.141613562887 0.707779952346 -0.390070169374 0.0812898997786 0.203153578164 -1.08096595527 0.0403735437806 -0.141192037504 0.997522809743 
-0.400727087019 0.768050291322 0.190192132108 -0.631095871671 0.755001279432 -0.103457683167 -0.708340244153 -0.19406305403 0.602150557434 1.02320571367 -0.990513470118 0.839748929256 -0.240643617285 0.601711916736 0.437807279703 0.611803525714 0.0910986228366 0.256149424926 -0.508100929317 0.106553193635 0.630176440519 0.750361604639 0.46833326076 0.233366238065 0.730330602214 -0.304337803445 0.0158564142254 0.0385063188677 0.574513465942 -0.212722403859 -0.199028703955 -0.470451245091 0.179384890959 -0.132257616808 1.11641446166 0.303175904055 -0.794906531738 -0.0929788344701 -0.319048419139 0.688832260781 
0.509564670715 0.810899749241 0.30066447936 -0.471585852609 -0.985675910693 0.621603035823 -0.0367705355136 0.60576419687 -0.00184882053675 0.258363448999 -0.0101187701214 1.40761078736 0.166927528303 0.524806099371 -0.683722191941 -0.988808256008 0.442459947821 -0.840645057634 1.03400821492 -0.545636687021 0.620609185984 0.773278776395 0.367754248103 0.00106237733397 -0.673485658196 -0.345797919474 -0.364563874555 -0.577079501988 0.465883768649 -0.535948551224 0.844898599387 0.801376958302 -0.574832961111 -0.977376666348 -0.774003945206 -0.108056237973 1.32979335134 -0.533195407329 -0.502333287568 0.861371946818 
-0.157214018414 0.171161244722 -0.502285089921 -0.795196422717 0.290368068797 0.0743893231824 -0.270528845867 0.246669458319 0.25747448505 0.505795513672 -0.704554162681 0.48610348257 -0.631701841738 0.5368277033 0.922540683022 -0.712941369576 -0.530959467951 0.745845360768 0.610468810277 -0.00351821653956 1.10894011984 0.88719282467 0.580650994062 0.695098298988 -0.802671181494 0.315102563464 0.59931128934 0.738300957313 0.491553525068 -0.98389807839 0.53322090187 0.519419730907 -0.313970031183 -0.46638556128 0.365789856274 -0.325507357327 0.471110558458 -0.355944102573 0.559873487962 1.33455060169 
-0.462542541005 -0.72597639521 0.826220092463 0.10743086814 1.09131627988 0.00574622583077 1.18195624081 0.0676563023879 0.31220734379 -0.570396100076 -0.282050876982 -1.14680417634 -0.6930687531 0.147176367213 -0.701608774142 -0.265922714932 0.743573949497 0.385156974741 0.272999189469 -0.723887076699 -0.0143361211276 0.222838513551 0.942858809896 -0.712798874714 -0.512522593868 -0.417289230651 0.368995056727 0.023489648043 -0.182577656011 -0.0924360913923 -0.543457769213 0.507906254079 -0.470763165398 -0.960527591527 0.213365859341 0.615171916679 -0.375918439668 0.530280105982 0.0419167130423 0.0873210636646 
0.68820546728 0.618417508025 -1.03402851244 0.418603097374 -0.602005374556 0.919528348185 -0.641220648563 -0.461816535104 -0.969440741487 -0.363595046161 -0.826556682083 1.15992137226 0.653026807422 0.880020821324 0.143689709073 -0.46089484531 1.32960700138 -0.142461314635 0.776646265197 0.433826936053 -0.780272552466 -0.804476929809 -0.970586466971 -1.02531256051 -0.0827713541272 -0.936045578951 -1.08848224475 0.450046340525 0.0750276023986 0.378448542587 -0.0898388334461 -0.162560274528 -0.125779173385 -0.243499819135 0.502353616516 -0.253580029973 1.59737131721 -0.889229781166 0.544457375404 -0.590485590074 
0.235399158822 -1.03940615063 0.0766103848476 -0.99303775 1.22419519033 1.064788065 1.03350078268 0.834974236695 -0.520549932502 -0.489677622251 -0.616940671464 0.199992078396 0.736616799351 1.38887185219 0.771076804629 0.660596788492 0.612799105365 -0.198253064335 -0.542094423762 -0.692991217336 -0.372301226844 0.625531866974 -0.773272094701 -0.490044422839 0.638081097235 -0.341531485391 1.13535802103 0.0511174480857 -0.130163407493 -0.441712518468 0.841072990128 -0.210809960826 0.021223969435 0.0328790394865 0.978435257364 -0.960141687601 0.318079770948 0.533801059671 -0.930105339049 0.359568975229 
-0.387702510326 0.709293231703 0.156196009147 0.416477171123 -0.0190896713257 0.0519941057533 -0.257334031931 -0.989134724776 0.41158760468 -0.245062488603 0.0430801610357 0.546386566046 -0.167027737478 -0.815727050791 -0.0891368704735 0.848353845992 0.875164164349 0.688362445279 0.756822570864 -0.642378382556 -0.720235829134 -0.497221591677 -0.392459694785 -0.739623514118 0.201009936232 -0.135686227432 0.526499618072 -0.522191864902 0.729414007807 -0.610066652016 0.195736125811 -0.394142938514 -0.929914828919 -0.55047571997 0.320322410766 -0.0778430233006 -0.117746516255 -0.632434752763 0.173829753907 0.99414537125 
0.453973758041 0.206158733452 0.783877509384 0.803070558023 -0.175450348796 -0.936720269176 -0.908186294474 -0.867993400211 -0.229969862021 -0.444596855394 0.909189455208 0.213040239907 1.00062131664 0.915988437737 0.206939658374 0.181622002716 0.960095992785 -0.046236371134 -0.768251897728 -0.0463451281434 -0.138730910931 0.489994016082 -0.0556868617865 -0.251246102038 -0.724383030382 -1.05341429042 0.432458667707 -0.474174123147 1.40339339811 -0.582111122505 -0.316279121368 -0.0216129512785 0.430315102532 -0.241760228548 -0.918400071492 -0.365169954244 0.769681431812 0.40276317573 0.540677882761 -0.664223503602 
-0.961192727984 -0.0203856531031 0.635309835123 -0.984711318493 0.612571179754 0.615042315465 0.377227301009 0.832685947462 0.49521021078 -0.775147352579 -0.0213063599723 0.706788875846 0.594774707158 0.718536919397 0.679343549539 0.378862806405 -0.704580098463 0.121155810039 0.312868468704 -0.319820266594 1.06810897818 -0.618007294622 0.42599121918 -0.471593822678 0.552084229906 -0.136496389494 0.676459012143 0.223923512156 -0.759639506161 0.470683248444 -0.358340359965 0.518053823135 0.641384852297 -0.55269847801 -0.404577658898 -0.639684076889 -0.854771726021 -0.497106253788 -0.928451193294 -0.410719940377 
0.321405564895 0.590015717423 -0.786503399071 -0.489729460161 -0.609439334866 0.687942207039 0.524755207232 0.102807043955 -0.170439707692 0.744936894875 -0.118250285057 0.54937682683 0.402328472944 -0.44458293321 -0.590431607508 0.90682018711 -0.777115251046 -0.595190748098 -0.220005990612 -0.294718434861 -0.62577682943 0.509226086188 -0.632205537963 0.224405927588 0.490729073907 -0.549999678381 0.0099805992777 0.603165396711 0.441841409824 0.107087956261 -0.387165039953 0.34697397188 0.838708301616 -0.146854144356 0.667920522648 -0.965528177818 0.403604103228 -0.578529879003 -0.197202520026 -0.362086713445 
-0.967852653605 0.822430378424 -0.439853132641 0.0739850828512 -0.314761022828 -0.841563879114 -0.686309738167 -0.849174666803 -0.122715396145 -0.671723644006 -0.321150737827 -0.116665762722 0.634944761442 -0.551514774836 0.453661992287 -0.684447558359 0.609321162718 -0.910410974386 0.869624842812 -0.357152604424 -0.0220222926001 0.507862153935 -0.69709842202 -0.0314817663441 -0.57092388474 0.484759560552 0.412973667027 -0.779283099893 1.21091017229 -0.910277268477 0.714689209992 0.0317954325042 -0.272393499441 0.389967085432 0.209858906462 1.00262393193 0.192977695218 -0.926674373662 0.858083663056 0.796446822049 
0.413407710404 -0.0271790664777 0.440741625379 0.552878307266 -0.174667360982 0.842818092792 0.941064395695 0.238141205697 0.00404478270944 0.577391973155 -0.981318175743 0.734065002321 0.728501329176 -0.143435020503 -0.414021534701 -0.357566117827 -0.729925610388 0.766149274024 0.0608630754745 -0.424410519375 -0.346858282824 -0.418963561534 0.146982497921 -0.420855992916 -0.0811099783996 -0.10361842497 0.631018050132 0.370154323528 -0.635508207512 0.260818779827 -0.54189685356 -0.0281671784457 -0.231493318653 0.231296698139 1.00647504 -0.167082805551 0.334928740814 -0.326461401028 0.319577266691 -0.287068553109 
-0.114041422277 0.801677494362 0.27402663194 0.568703060585 0.0339373302984 -0.222840873157 0.815902182851 -0.879890780785 0.235752139058 0.906363395991 0.0489348614607 -0.883304524594 0.705415785228 -0.772023320511 0.497099806339 0.0399117721527 0.640572066984 0.248376912735 0.693472293311 -1.03283974131 1.08588755138 -0.825350264165 -0.375787609981 0.867938415018 -0.995130350406 0.670109871316 0.473099266632 0.0397152343481 -0.222293396748 0.617960263718 -0.0526298363074 -0.845141582764 0.856695658527 0.824475381921 0.167816302656 0.662489611253 -0.48358428481 0.346960159008 -0.212570352445 0.175565906525 
-0.731373004177 0.942179756384 -0.570365888751 -0.779562238289 -0.995599735505 -1.09648167513 0.302321076458 0.124972353806 0.409192673939 -0.207799713723 0.560876591486 0.88000684814 0.608894670332 -0.193814488474 -0.227880433363 -0.646513838462 -0.149448667113 -0.654893896015 0.196543217784 -0.235522845055 -0.263748371996 0.9877713601 -0.375416390147 0.898094233262 0.268526543938 -0.24589703156 0.744459862329 0.0877360979202 -0.0378388760359 0.641445535926 -0.139898885271 -0.349769332258 -0.432758323167 0.295890050051 -0.68092968564 0.615766252932 -0.0192435522701 0.164874528583 -0.0354950337038 0.830933281368 
0.708776741392 -0.693045387347 0.173428167225 0.799942805023 -0.156947973162 1.167292642 -0.0351347433412 0.238066519212 0.581539297268 -0.369822702132 -0.96386871965 0.219953851386 0.810414831218 0.0988692475312 0.912202170383 -0.442440985772 -0.577442259977 -0.710811098404 0.390571259096 0.41323025767 0.753326318131 -0.485464513336 0.297611099432 -0.633764853386 -0.151358040242 -0.231355958826 -0.28262905545 -0.367189547142 -0.108594172379 0.318905338836 0.227177536561 0.317331924153 -0.525109761666 -0.748875935102 0.269053348817 0.701778654721 -0.840612781056 -0.303661230813 -0.147772501226 0.465765362887 
-0.649513763523 -0.334069794733 -0.410652632876 0.707270930969 0.694726414258 -0.429709434601 0.31717083165 -0.729533355335 -0.00613409924632 -0.478304397791 0.731474765241 0.0664524119125 0.299658375678 -0.980330884127 0.0520744605437 0.914977273308 0.56912782185 0.289980600895 -0.647682100272 0.237979274858 0.257322548742 -0.0578889297361 -0.167705355804 0.203821247097 0.691685131543 0.510004153456 -0.151890280583 1.03767702777 -0.464580020787 1.05825608931 -0.88827741327 -0.711489515485 -0.136562173459 -0.750574942983 0.430236115551 -0.946599271607 -0.706305604074 -0.919750359138 0.419361016778 0.508251789501 
-0.352256102197 -0.612765555975 0.381605825156 -0.315697538991 0.334357391789 -0.136118454396 -0.074231374561 -0.949931981989 0.0864373191272 -0.518615422181 -0.555851009512 0.235258532809 -0.194930521987 -0.174750930989 0.448000649775 -0.2652425377 0.575501990971 0.105528734791 1.17812184315 -0.0239616133798 -0.565119416101 0.860603787371 -0.929868083596 0.877584492711 0.113323076266 -0.259886662782 1.04928188412 -1.00972324232 0.422178358717 -0.907247339113 0.147622095521 -0.666110129606 0.161308267127 0.875896942545 0.547955370439 -0.138346585491 0.663703645123 0.629063300272 -0.0158363628973 0.236043246087 
-0.788024360703 -0.323019336278 -0.745561765289 0.457318792591 -0.103285007779 0.228585692852 1.06214723057 0.0801170541105 -0.00293338925025 -0.337951825626 -0.853668188987 0.308988860133 -1.01240194589 -0.0464215851544 0.421297118028 1.08560126962 -0.923886316305 0.346075327222 -0.0931056120969 0.550375707251 -0.319266317382 -0.818018009655 -0.286378213692 0.500657174148 -0.617450486237 0.560396017541 -0.388727379218 -0.0485779450401 -1.35281721128 -0.312660079381 -0.236783058914 0.339458153364 -0.761292934376 -0.761050059828 -0.755480186654 -0.804082868396 0.215602863174 -0.364879570571 -0.363584640651 0.535946198994 
0.994438249983 0.648509533869 0.454235967187 0.83866496834 -0.729050112802 -1.1762824567 -0.00307642939579 -0.31994642847 0.788961900639 -0.155650282441 0.0882359997741 0.492210304688 -0.0626697177773 0.546474378355 -0.282357854765 -0.489526643681 -0.673279513793 0.0950427123603 -0.547225037235 0.271361150038 -0.55979175753 -0.805264747537 0.711487104274 -0.501757238646 -0.231735557003 0.146591950923 -0.230255261238 -0.63086288298 1.25863320529 0.986455154248 0.667515894522 -0.518343248157 0.0680445549904 -0.301157909224 0.216235043954 0.908099417004 -0.536392300684 0.298623992189 -0.299324246181 0.651197641725 
-0.459903390977 0.794811181495 0.441530635379 0.529621211747 -0.331470757171 -0.705787963108 -1.00417252792 -0.364515016655 -1.07347084318 0.218967724339 0.329004171775 0.242413322487 0.584453143199 -0.0221709040848 -1.45601512905 -0.756614843335 -0.64255306227 -0.328679531269 -0.50119640276 0.473921117989 -0.0556781530563 0.268784121834 -0.148780956892 0.655863109962 -0.0913726655298 -0.993986568042 0.711183958844 0.156618258961 1.00420424516 0.926137084081 -0.892913051446 -0.571290458109 -0.960147627682 -0.243610461347 0.578062086054 -0.903278676723 0.132070458097 -0.688380856722 0.53908236498 0.844255486387 
-0.995817232507 -0.0862485076163 -0.575559863729 0.921066325474 0.863843714198 0.531051139146 1.209569931 -0.287946559464 0.95120923923 -0.0281302445978 -0.530513662245 1.2342273511 0.301032010573 -0.497565745417 1.18901947158 0.532152262816 0.211837768462 0.464643812572 -0.611225502914 0.181582375541 1.03570985513 -0.872720065431 -0.827825760873 0.60355608827 0.231513114682 0.104170729992 -0.407330481641 0.0832568891899 0.424446792008 -0.26958920214 -0.84921266988 0.804920587347 -0.503960419733 0.589387204951 0.876268411056 -0.0349349998721 0.236948580948 -0.104919818576 0.259535557459 1.04655989184 
-0.441115544568 0.744431442899 0.179789835474 -0.772871578313 -0.368734039926 -0.209918711851 -0.535954233513 -0.747426943314 -0.764932056754 0.546598700511 0.210722856985 0.743675442747 -0.276933496642 -0.0169989478561 0.469680011765 0.247056571986 -1.18162936828 0.5005570593 0.855278251952 -0.0523718172164 -0.451420239321 0.512981773904 -1.01420838176 -0.289521395359 0.831166397627 0.17989545386 0.619292729824 0.451993783199 1.22116431042 0.849364745426 -0.320670294467 -0.80380959338 0.44568342034 -0.112921836291 -0.752016226307 0.15220225291 -1.06585881471 -0.613721745148 0.629227684571 -0.870261176255 
-0.506662625775 -0.940184326301 0.917558360121 0.168417014199 -0.678663547767 0.805967061727 -0.0607499675762 -0.0969509440146 0.0467428416188 -0.617001876772 -0.40361855874 0.298186240361 -0.459105801958 0.171174477989 -0.120925442208 -0.894384330202 1.00741400057 0.506133377974 1.00434473323 0.815712053977 -0.933731084855 -0.0136513396189 -0.11949163316 0.262086119745 -0.101991926165 0.409073662066 0.251246524311 0.258595823731 0.576938913247 -0.658444016322 0.535051370158 0.499411088027 0.742047015125 -0.63764758789 -0.755230820518 -0.257391707936 -0.110994867582 0.677827455066 0.22875471233 0.679498564772 
-0.193854076766 -0.846790795689 -0.791603031072 -0.226281165442 -0.706043738525 0.845724384177 0.529114922418 0.404296342099 0.158022292603 -0.714588854646 -0.533665154614 0.142392386899 -0.657438332953 -0.397312493217 0.675135260383 0.570977662162 -0.265474881911 0.686785616677 -0.20722754274 0.720656425454 0.646317789184 0.166630241832 -0.671054194277 -0.0170794640411 0.778884874434 -0.381908943899 0.824595905332 1.13085135288 -0.741845956268 0.279352003157 0.814458054495 -0.861590650934 0.893715295386 -0.661066762745 0.749745854263 0.322186209594 -0.238829915734 -0.912834826644 0.278002340981 0.897505161848 
0.658910743378 0.229899179316 0.956829277103 0.175031272646 -0.337245406427 -0.627295481978 -0.370206742152 0.965169085083 -0.3599868929 0.849128895913 0.0438118752092 -0.790905876081 -0.833853683435 -0.487607389545 -0.499150817711 0.336444784964 -0.400322538423 0.981757382511 0.837915339736 -0.82490110352 -0.027614071513 -0.0837208474224 0.0875671360053 0.622027526471 -0.0293304807459 -0.156954018087 -0.470019890712 1.04397882597 -0.193614081457 0.77204077894 -0.603243629197 0.329332825072 -0.29075739885 0.964862139646 -0.830228079197 -0.632151513354 0.629332122313 0.179236851635 -0.338878124051 -0.915110874295 
-0.661966292262 -0.68918453505 -0.650559759038 0.770086368375 0.567872079197 0.33941906962 -0.153158266612 0.652748154798 -0.141405472565 -0.406396295372 -0.459567046856 1.52661178495 -0.176441117956 0.0256838342599 -0.958549224804 0.733731297596 -0.205400357475 -0.404657003556 0.798907042596 -0.312160439375 -0.874573605489 0.685464113722 0.486387748676 0.0930678020728 -0.504808011649 0.251258668619 0.157307923382 -0.48503806473 -0.523978167273 0.809761084186 -0.057991661845 0.499150207675 -0.543916834047 0.0701879048982 -0.23132401774 -0.275897705803 -0.545027299752 -0.472509645176 -0.825741900004 -0.275419124634 
0.466910012345 0.19459717807 0.333651638588 -0.94374528712 0.209830912115 0.146545008414 -0.245574673215 -0.617985305827 -0.459001803567 0.781808975564 0.963840538978 0.935636994987 -0.354426214786 1.06657466813 0.181665255458 0.754144354356 0.0287895080465 0.179599886512 0.561470029023 -0.794160534933 0.308368694713 -0.267623883438 0.15391270716 0.864516974686 -0.229147972102 -0.201844109606 0.676815575623 0.544634497792 -0.721435979418 0.320101798883 -0.187026699956 -0.757721547484 0.0409738629129 -0.352250818194 -0.528537394612 0.845361384401 0.389840176547 -0.00694632919303 0.49073918024 0.278620800448 
0.465206840558 0.828818472085 0.758524227937 -0.669926966406 -0.180013462629 -1.43823473383 0.916259990597 -0.556807815471 0.143684210519 -0.940265734256 -0.574733389626 -0.172744348629 -0.787981633627 -0.368875790913 0.360925406068 -0.212397153682 -0.0172257268971 0.0734640191913 -0.236680905426 0.267612932495 0.566035691788 0.337311407646 0.0762449996196 -0.195497491042 0.222931278983 0.874584311046 0.319784383849 1.25752730732 0.814663259288 0.684723846845 -0.914324899878 0.50143908342 0.0558544082074 -0.946462032099 -0.612316966665 0.115985677338 0.462339897343 -0.884349159051 0.136502244189 0.79788207477 
0.153845638772 0.887570442328 -0.885644234552 -0.45723165744 0.498739958701 0.496175304144 0.126352442322 0.668554833689 0.67528736553 0.785416746289 0.990810214247 -0.143680141461 -0.813241452408 -0.897793952288 -1.42100097816 0.920501943459 -0.860513337718 0.683569074148 0.706685988789 0.250097535163 -0.44289409282 -0.255902569633 -0.506423278223 0.759161469957 0.455989521158 -0.939364406735 -0.187050737307 -0.651800279072 -0.665487630791 0.752018392557 0.572699526157 -0.371803365761 0.531895190729 -0.468709989762 -0.473940167236 0.773050609746 1.0436107607 0.0676931594075 0.92366415894 0.86621051748 
0.00397582563327 -0.279342728656 0.432048188197 -0.0484121768028 -0.0357109185047 1.08515927809 0.782783844786 -0.298012013406 -0.72945036513 -0.611298123331 0.0489193733774 0.036605837681 0.574385132086 1.42987544561 -0.638872209787 0.81581007365 0.974813464004 0.918637974389 -0.950965252862 -0.893357460051 -0.826579425882 -0.374940193015 -0.926594844906 -0.448713953006 -0.302870262715 0.882268453429 -0.00142250877765 -0.296733768544 -0.500461747218 0.234562116184 -0.786928048062 0.478929910414 0.841209664102 0.654212961315 0.818416598523 -0.251048476516 -0.0728310373751 -0.998802901 -0.564754030189 1.06503308765 
-0.357745267334 0.781904468714 0.76990783157 0.828539984816 -0.288305616024 0.234724460217 0.221113545424 -0.609609560285 -0.561682823981 -0.860170771053 -0.108381677244 -1.14216712425 -0.651192405259 -0.726362464208 0.679888409885 0.252276969153 0.565224496869 -0.510707194105 0.27974451557 -1.02765031081 0.268373160794 0.694291407259 0.91256595031 -0.869896182644 -0.492990982491 -0.515683475328 -0.787544807508 -0.700120821841 0.931166447742 -0.681886782209 -0.412584321418 0.268728870838 -0.381084999155 -0.405424651628 -0.0124422354156 -0.173659594644 0.406592161078 -0.0278665049167 0.321501990258 -0.169148974227 
-0.562994398014 -0.702905390282 0.849721982749 0.623129489064 0.515400456654 -0.650488290261 0.763598344842 0.874291385123 -0.556179406001 -0.648719130714 0.0990591521433 -0.202999322449 -0.0638086823489 -0.807748125516 0.417620521453 -0.0419191128265 0.843404006866 0.289780738733 0.321288458563 1.20196797678 -0.906018116248 0.314138967834 0.319602811331 -0.168435321531 -0.885638019294 0.00238076984868 -0.205370612521 0.370586769206 -0.274682222749 -0.245179399279 -0.48218216695 0.307782688463 0.904794824375 -0.755045863887 0.560765814094 -0.634333939045 -0.857753777962 -0.685622374914 0.892951160163 0.824946473077 
-0.45781864943 0.883583650091 0.744855211876 -0.0778599400299 -0.389388426045 0.326613690677 -0.486702607387 -0.936373301244 -0.437665106372 -0.989235067943 0.342954676691 0.551525596015 -0.372731134489 1.16499285382 -0.790443774491 -0.432532964693 -0.358622807742 -0.608537536623 -0.879291664226 0.711857831391 -0.742658265025 0.354876107142 -0.765210275966 -0.987976494923 0.0950743210449 0.755851048272 0.789991452729 -0.312748687795 -1.44784985979 0.574365110044 0.576062948082 0.689895552532 0.48904730682 0.560052888556 0.819947718475 -0.0997952127874 0.102840047757 -0.189668896016 0.34532476436 0.376974173738 
0.0549656775439 0.654097149852 -0.0132239379819 0.662361918273 -0.414756897975 -0.562199099656 0.908349197669 0.4828243716 -0.504919274375 0.140755219173 0.914411138814 -0.891632378476 -0.834154002796 0.100776462702 -0.496823416953 0.524768670903 0.0472619157518 0.332275838561 -0.754228644541 -0.803913692246 0.279911021147 -0.173489551827 -0.833127524541 -0.229055126765 0.33987553671 -0.566613663107 0.810591295556 0.927377870495 0.873849040257 0.475417067262 -0.183027309118 0.477657938231 -0.430627640094 -0.362134568641 0.222233701373 0.206404494516 0.681048802002 -0.480039544847 0.534941181348 0.896338898147 
